<?xml version="1.0"?>
<opencv_storage>
<cascade>
  <stageType>BOOST</stageType>
  <featureType>HAAR</featureType>
  <height>20</height>
  <width>20</width>
  <stageParams>
    <boostType>GAB</boostType>
    <minHitRate>9.9900001287460327e-01</minHitRate>
    <maxFalseAlarm>5.0000000000000000e-01</maxFalseAlarm>
    <weightTrimRate>9.4999999999999996e-01</weightTrimRate>
    <maxDepth>1</maxDepth>
    <maxWeakCount>100</maxWeakCount></stageParams>
  <featureParams>
    <maxCatCount>0</maxCatCount>
    <featSize>1</featSize>
    <mode>ALL</mode></featureParams>
  <stageNum>14</stageNum>
  <stages>
    <!-- stage 0 -->
    <_>
      <maxWeakCount>2</maxWeakCount>
      <stageThreshold>-2.1093341708183289e-01</stageThreshold>
      <weakClassifiers>
        <_>
          <internalNodes>
            0 -1 17 1.8177691102027893e-01</internalNodes>
          <leafValues>
            -9.7808218002319336e-01 9.6078431606292725e-01</leafValues></_>
        <_>
          <internalNodes>
            0 -1 14 7.3663964867591858e-02</internalNodes>
          <leafValues>
            -9.9433046579360962e-01 7.6714879274368286e-01</leafValues></_></weakClassifiers></_>
    <!-- stage 1 -->
    <_>
      <maxWeakCount>2</maxWeakCount>
      <stageThreshold>-3.3457854390144348e-01</stageThreshold>
      <weakClassifiers>
        <_>
          <internalNodes>
            0 -1 39 -2.2124325856566429e-02</internalNodes>
          <leafValues>
            6.4705884456634521e-01 -8.9041095972061157e-01</leafValues></_>
        <_>
          <internalNodes>
            0 -1 3 -1.0483791679143906e-01</internalNodes>
          <leafValues>
            5.5583238601684570e-01 -9.6575564146041870e-01</leafValues></_></weakClassifiers></_>
    <!-- stage 2 -->
    <_>
      <maxWeakCount>3</maxWeakCount>
      <stageThreshold>-1.2943750619888306e+00</stageThreshold>
      <weakClassifiers>
        <_>
          <internalNodes>
            0 -1 7 -7.4983060359954834e-02</internalNodes>
          <leafValues>
            5.2542370557785034e-01 -9.1977077722549438e-01</leafValues></_>
        <_>
          <internalNodes>
            0 -1 5 -7.0375189185142517e-02</internalNodes>
          <leafValues>
            4.6946561336517334e-01 -8.6819016933441162e-01</leafValues></_>
        <_>
          <internalNodes>
            0 -1 33 -1.7638228833675385e-02</internalNodes>
          <leafValues>
            4.9358588457107544e-01 -8.3211046457290649e-01</leafValues></_></weakClassifiers></_>
    <!-- stage 3 -->
    <_>
      <maxWeakCount>4</maxWeakCount>
      <stageThreshold>-2.0566635131835938e+00</stageThreshold>
      <weakClassifiers>
        <_>
          <internalNodes>
            0 -1 48 -1.1734698899090290e-02</internalNodes>
          <leafValues>
            4.7474747896194458e-01 -8.3152174949645996e-01</leafValues></_>
        <_>
          <internalNodes>
            0 -1 4 -8.6121380329132080e-02</internalNodes>
          <leafValues>
            5.3834182024002075e-01 -8.8949555158615112e-01</leafValues></_>
        <_>
          <internalNodes>
            0 -1 26 -1.7919108271598816e-02</internalNodes>
          <leafValues>
            3.6855021119117737e-01 -9.5881646871566772e-01</leafValues></_>
        <_>
          <internalNodes>
            0 -1 31 5.0590015947818756e-02</internalNodes>
          <leafValues>
            -8.0466699600219727e-01 4.6908015012741089e-01</leafValues></_></weakClassifiers></_>
    <!-- stage 4 -->
    <_>
      <maxWeakCount>3</maxWeakCount>
      <stageThreshold>-1.2878497838973999e+00</stageThreshold>
      <weakClassifiers>
        <_>
          <internalNodes>
            0 -1 27 -9.6618607640266418e-02</internalNodes>
          <leafValues>
            6.0000002384185791e-01 -7.9328167438507080e-01</leafValues></_>
        <_>
          <internalNodes>
            0 -1 9 -1.8888058839365840e-03</internalNodes>
          <leafValues>
            3.8722601532936096e-01 -8.7802207469940186e-01</leafValues></_>
        <_>
          <internalNodes>
            0 -1 29 -1.9926901906728745e-02</internalNodes>
          <leafValues>
            3.8345396518707275e-01 -9.8303818702697754e-01</leafValues></_></weakClassifiers></_>
    <!-- stage 5 -->
    <_>
      <maxWeakCount>4</maxWeakCount>
      <stageThreshold>-1.1230026483535767e+00</stageThreshold>
      <weakClassifiers>
        <_>
          <internalNodes>
            0 -1 20 -4.5896112918853760e-02</internalNodes>
          <leafValues>
            1.8918919563293457e-01 -8.9968651533126831e-01</leafValues></_>
        <_>
          <internalNodes>
            0 -1 1 -1.3910138607025146e-01</internalNodes>
          <leafValues>
            3.8739886879920959e-01 -8.1400275230407715e-01</leafValues></_>
        <_>
          <internalNodes>
            0 -1 10 1.3456275686621666e-02</internalNodes>
          <leafValues>
            -8.8351416587829590e-01 4.3920493125915527e-01</leafValues></_>
        <_>
          <internalNodes>
            0 -1 6 4.3243020772933960e-03</internalNodes>
          <leafValues>
            -9.5532625913619995e-01 3.8532510399818420e-01</leafValues></_></weakClassifiers></_>
    <!-- stage 6 -->
    <_>
      <maxWeakCount>3</maxWeakCount>
      <stageThreshold>-1.1299577951431274e+00</stageThreshold>
      <weakClassifiers>
        <_>
          <internalNodes>
            0 -1 22 3.8305675983428955e-01</internalNodes>
          <leafValues>
            -7.9032260179519653e-01 3.6842104792594910e-01</leafValues></_>
        <_>
          <internalNodes>
            0 -1 11 2.5080118328332901e-02</internalNodes>
          <leafValues>
            -8.0050283670425415e-01 4.1533422470092773e-01</leafValues></_>
        <_>
          <internalNodes>
            0 -1 8 -1.9470597617328167e-03</internalNodes>
          <leafValues>
            4.6086758375167847e-01 -7.3313605785369873e-01</leafValues></_></weakClassifiers></_>
    <!-- stage 7 -->
    <_>
      <maxWeakCount>4</maxWeakCount>
      <stageThreshold>-1.1425561904907227e+00</stageThreshold>
      <weakClassifiers>
        <_>
          <internalNodes>
            0 -1 28 -6.7860424518585205e-02</internalNodes>
          <leafValues>
            -6.3290301818841321e-18 -9.4181817770004272e-01</leafValues></_>
        <_>
          <internalNodes>
            0 -1 45 4.3477178551256657e-03</internalNodes>
          <leafValues>
            -7.5876724720001221e-01 3.7773713469505310e-01</leafValues></_>
        <_>
          <internalNodes>
            0 -1 46 3.6990681110182777e-05</internalNodes>
          <leafValues>
            -8.3711636066436768e-01 3.5391062498092651e-01</leafValues></_>
        <_>
          <internalNodes>
            0 -1 32 7.6831039041280746e-03</internalNodes>
          <leafValues>
            -6.8317699432373047e-01 4.9460303783416748e-01</leafValues></_></weakClassifiers></_>
    <!-- stage 8 -->
    <_>
      <maxWeakCount>4</maxWeakCount>
      <stageThreshold>-8.4436392784118652e-01</stageThreshold>
      <weakClassifiers>
        <_>
          <internalNodes>
            0 -1 30 1.9818072021007538e-01</internalNodes>
          <leafValues>
            -7.5000000000000000e-01 4.6666666865348816e-01</leafValues></_>
        <_>
          <internalNodes>
            0 -1 35 2.6464581489562988e-02</internalNodes>
          <leafValues>
            -6.8884932994842529e-01 4.1885668039321899e-01</leafValues></_>
        <_>
          <internalNodes>
            0 -1 15 -3.0324095860123634e-02</internalNodes>
          <leafValues>
            4.0176570415496826e-01 -7.8208446502685547e-01</leafValues></_>
        <_>
          <internalNodes>
            0 -1 18 -8.0650625750422478e-04</internalNodes>
          <leafValues>
            -9.4780284166336060e-01 3.1884968280792236e-01</leafValues></_></weakClassifiers></_>
    <!-- stage 9 -->
    <_>
      <maxWeakCount>4</maxWeakCount>
      <stageThreshold>-1.3566553592681885e+00</stageThreshold>
      <weakClassifiers>
        <_>
          <internalNodes>
            0 -1 44 3.1384145841002464e-03</internalNodes>
          <leafValues>
            -8.2530122995376587e-01 1.1111111193895340e-01</leafValues></_>
        <_>
          <internalNodes>
            0 -1 19 -1.9143254030495882e-04</internalNodes>
          <leafValues>
            1.9420483708381653e-01 -9.4482129812240601e-01</leafValues></_>
        <_>
          <internalNodes>
            0 -1 0 3.1323626171797514e-03</internalNodes>
          <leafValues>
            -7.7908396720886230e-01 3.5702273249626160e-01</leafValues></_>
        <_>
          <internalNodes>
            0 -1 42 -4.2615003883838654e-02</internalNodes>
          <leafValues>
            3.9731663465499878e-01 -8.7996786832809448e-01</leafValues></_></weakClassifiers></_>
    <!-- stage 10 -->
    <_>
      <maxWeakCount>4</maxWeakCount>
      <stageThreshold>-1.1714583635330200e+00</stageThreshold>
      <weakClassifiers>
        <_>
          <internalNodes>
            0 -1 40 -6.1939032748341560e-03</internalNodes>
          <leafValues>
            1.4074073731899261e-01 -8.3734941482543945e-01</leafValues></_>
        <_>
          <internalNodes>
            0 -1 12 -1.6592398285865784e-02</internalNodes>
          <leafValues>
            1.9923497736454010e-01 -9.3209826946258545e-01</leafValues></_>
        <_>
          <internalNodes>
            0 -1 49 2.8703712814603932e-05</internalNodes>
          <leafValues>
            -8.4741735458374023e-01 3.1615751981735229e-01</leafValues></_>
        <_>
          <internalNodes>
            0 -1 2 -8.5331890732049942e-03</internalNodes>
          <leafValues>
            4.7858309745788574e-01 -6.9625836610794067e-01</leafValues></_></weakClassifiers></_>
    <!-- stage 11 -->
    <_>
      <maxWeakCount>4</maxWeakCount>
      <stageThreshold>-8.5044670104980469e-01</stageThreshold>
      <weakClassifiers>
        <_>
          <internalNodes>
            0 -1 38 -1.2724015116691589e-01</internalNodes>
          <leafValues>
            2.5233644247055054e-01 -7.9444444179534912e-01</leafValues></_>
        <_>
          <internalNodes>
            0 -1 13 -4.5342169702053070e-02</internalNodes>
          <leafValues>
            4.9289327859878540e-01 -6.7203313112258911e-01</leafValues></_>
        <_>
          <internalNodes>
            0 -1 23 -1.1649888474494219e-03</internalNodes>
          <leafValues>
            -9.0379071235656738e-01 3.4961885213851929e-01</leafValues></_>
        <_>
          <internalNodes>
            0 -1 34 -4.7198234824463725e-04</internalNodes>
          <leafValues>
            3.5489517450332642e-01 -9.7800379991531372e-01</leafValues></_></weakClassifiers></_>
    <!-- stage 12 -->
    <_>
      <maxWeakCount>5</maxWeakCount>
      <stageThreshold>-1.3852143287658691e+00</stageThreshold>
      <weakClassifiers>
        <_>
          <internalNodes>
            0 -1 25 -1.6442152857780457e-01</internalNodes>
          <leafValues>
            8.2608693838119507e-01 -7.0546317100524902e-01</leafValues></_>
        <_>
          <internalNodes>
            0 -1 43 8.1441011279821396e-03</internalNodes>
          <leafValues>
            -7.5978136062622070e-01 5.8566278219223022e-01</leafValues></_>
        <_>
          <internalNodes>
            0 -1 36 -5.1932740956544876e-02</internalNodes>
          <leafValues>
            4.5153522491455078e-01 -7.6772260665893555e-01</leafValues></_>
        <_>
          <internalNodes>
            0 -1 24 -2.9715078198933043e-05</internalNodes>
          <leafValues>
            4.2232534289360046e-01 -7.5315874814987183e-01</leafValues></_>
        <_>
          <internalNodes>
            0 -1 37 3.6343913525342941e-03</internalNodes>
          <leafValues>
            -7.9383033514022827e-01 4.6938079595565796e-01</leafValues></_></weakClassifiers></_>
    <!-- stage 13 -->
    <_>
      <maxWeakCount>4</maxWeakCount>
      <stageThreshold>-5.9171217679977417e-01</stageThreshold>
      <weakClassifiers>
        <_>
          <internalNodes>
            0 -1 41 -9.8285581916570663e-03</internalNodes>
          <leafValues>
            1. -7.7073168754577637e-01</leafValues></_>
        <_>
          <internalNodes>
            0 -1 47 -5.3370045498013496e-03</internalNodes>
          <leafValues>
            4.7195935249328613e-01 -8.3355140686035156e-01</leafValues></_>
        <_>
          <internalNodes>
            0 -1 21 -1.9183175754733384e-04</internalNodes>
          <leafValues>
            5.3532880544662476e-01 -8.6015993356704712e-01</leafValues></_>
        <_>
          <internalNodes>
            0 -1 16 -7.6149019878357649e-04</internalNodes>
          <leafValues>
            -8.2826858758926392e-01 5.7010859251022339e-01</leafValues></_></weakClassifiers></_></stages>
  <features>
    <_>
      <rects>
        <_>
          0 0 4 4 -1.</_>
        <_>
          0 1 4 2 2.</_></rects>
      <tilted>0</tilted></_>
    <_>
      <rects>
        <_>
          0 1 20 15 -1.</_>
        <_>
          0 6 20 5 3.</_></rects>
      <tilted>0</tilted></_>
    <_>
      <rects>
        <_>
          0 5 3 6 -1.</_>
        <_>
          1 7 1 2 9.</_></rects>
      <tilted>0</tilted></_>
    <_>
      <rects>
        <_>
          0 12 18 4 -1.</_>
        <_>
          6 12 6 4 3.</_></rects>
      <tilted>0</tilted></_>
    <_>
      <rects>
        <_>
          1 1 8 8 -1.</_>
        <_>
          1 5 8 4 2.</_></rects>
      <tilted>0</tilted></_>
    <_>
      <rects>
        <_>
          1 12 18 6 -1.</_>
        <_>
          1 12 9 3 2.</_>
        <_>
          10 15 9 3 2.</_></rects>
      <tilted>0</tilted></_>
    <_>
      <rects>
        <_>
          2 12 4 8 -1.</_>
        <_>
          2 14 4 4 2.</_></rects>
      <tilted>0</tilted></_>
    <_>
      <rects>
        <_>
          3 1 6 8 -1.</_>
        <_>
          3 5 6 4 2.</_></rects>
      <tilted>0</tilted></_>
    <_>
      <rects>
        <_>
          3 3 2 4 -1.</_>
        <_>
          3 4 2 2 2.</_></rects>
      <tilted>0</tilted></_>
    <_>
      <rects>
        <_>
          3 5 1 3 -1.</_>
        <_>
          2 6 1 1 3.</_></rects>
      <tilted>1</tilted></_>
    <_>
      <rects>
        <_>
          3 5 10 3 -1.</_>
        <_>
          3 5 5 3 2.</_></rects>
      <tilted>1</tilted></_>
    <_>
      <rects>
        <_>
          3 11 17 6 -1.</_>
        <_>
          3 13 17 2 3.</_></rects>
      <tilted>0</tilted></_>
    <_>
      <rects>
        <_>
          4 2 12 4 -1.</_>
        <_>
          7 5 6 4 2.</_></rects>
      <tilted>1</tilted></_>
    <_>
      <rects>
        <_>
          5 1 2 10 -1.</_>
        <_>
          5 6 2 5 2.</_></rects>
      <tilted>0</tilted></_>
    <_>
      <rects>
        <_>
          6 1 14 12 -1.</_>
        <_>
          6 1 7 6 2.</_>
        <_>
          13 7 7 6 2.</_></rects>
      <tilted>0</tilted></_>
    <_>
      <rects>
        <_>
          6 6 4 6 -1.</_>
        <_>
          4 8 4 2 3.</_></rects>
      <tilted>1</tilted></_>
    <_>
      <rects>
        <_>
          7 0 4 1 -1.</_>
        <_>
          9 0 2 1 2.</_></rects>
      <tilted>0</tilted></_>
    <_>
      <rects>
        <_>
          7 1 13 6 -1.</_>
        <_>
          7 1 13 3 2.</_></rects>
      <tilted>1</tilted></_>
    <_>
      <rects>
        <_>
          7 11 4 1 -1.</_>
        <_>
          7 11 2 1 2.</_></rects>
      <tilted>1</tilted></_>
    <_>
      <rects>
        <_>
          7 12 2 6 -1.</_>
        <_>
          7 12 1 3 2.</_>
        <_>
          8 15 1 3 2.</_></rects>
      <tilted>0</tilted></_>
    <_>
      <rects>
        <_>
          8 8 5 6 -1.</_>
        <_>
          6 10 5 2 3.</_></rects>
      <tilted>1</tilted></_>
    <_>
      <rects>
        <_>
          8 11 4 4 -1.</_>
        <_>
          9 11 2 4 2.</_></rects>
      <tilted>0</tilted></_>
    <_>
      <rects>
        <_>
          9 0 11 8 -1.</_>
        <_>
          9 0 11 4 2.</_></rects>
      <tilted>1</tilted></_>
    <_>
      <rects>
        <_>
          9 12 3 2 -1.</_>
        <_>
          10 13 1 2 3.</_></rects>
      <tilted>1</tilted></_>
    <_>
      <rects>
        <_>
          9 12 3 4 -1.</_>
        <_>
          10 12 1 4 3.</_></rects>
      <tilted>0</tilted></_>
    <_>
      <rects>
        <_>
          9 12 10 8 -1.</_>
        <_>
          9 16 10 4 2.</_></rects>
      <tilted>0</tilted></_>
    <_>
      <rects>
        <_>
          9 13 9 4 -1.</_>
        <_>
          9 15 9 2 2.</_></rects>
      <tilted>0</tilted></_>
    <_>
      <rects>
        <_>
          9 13 11 6 -1.</_>
        <_>
          9 16 11 3 2.</_></rects>
      <tilted>0</tilted></_>
    <_>
      <rects>
        <_>
          10 0 2 20 -1.</_>
        <_>
          10 10 2 10 2.</_></rects>
      <tilted>0</tilted></_>
    <_>
      <rects>
        <_>
          10 0 10 2 -1.</_>
        <_>
          10 0 10 1 2.</_></rects>
      <tilted>1</tilted></_>
    <_>
      <rects>
        <_>
          10 1 5 10 -1.</_>
        <_>
          10 1 5 5 2.</_></rects>
      <tilted>1</tilted></_>
    <_>
      <rects>
        <_>
          11 2 3 6 -1.</_>
        <_>
          11 2 3 3 2.</_></rects>
      <tilted>1</tilted></_>
    <_>
      <rects>
        <_>
          12 9 2 10 -1.</_>
        <_>
          13 9 1 10 2.</_></rects>
      <tilted>0</tilted></_>
    <_>
      <rects>
        <_>
          13 0 7 3 -1.</_>
        <_>
          12 1 7 1 3.</_></rects>
      <tilted>1</tilted></_>
    <_>
      <rects>
        <_>
          14 7 6 2 -1.</_>
        <_>
          14 7 3 1 2.</_>
        <_>
          17 8 3 1 2.</_></rects>
      <tilted>0</tilted></_>
    <_>
      <rects>
        <_>
          14 9 6 7 -1.</_>
        <_>
          16 9 2 7 3.</_></rects>
      <tilted>0</tilted></_>
    <_>
      <rects>
        <_>
          14 10 3 10 -1.</_>
        <_>
          14 15 3 5 2.</_></rects>
      <tilted>0</tilted></_>
    <_>
      <rects>
        <_>
          14 11 6 2 -1.</_>
        <_>
          16 13 2 2 3.</_></rects>
      <tilted>1</tilted></_>
    <_>
      <rects>
        <_>
          15 0 5 15 -1.</_>
        <_>
          15 5 5 5 3.</_></rects>
      <tilted>0</tilted></_>
    <_>
      <rects>
        <_>
          15 5 5 2 -1.</_>
        <_>
          15 5 5 1 2.</_></rects>
      <tilted>1</tilted></_>
    <_>
      <rects>
        <_>
          15 7 4 2 -1.</_>
        <_>
          16 8 2 2 2.</_></rects>
      <tilted>1</tilted></_>
    <_>
      <rects>
        <_>
          15 8 3 2 -1.</_>
        <_>
          16 9 1 2 3.</_></rects>
      <tilted>1</tilted></_>
    <_>
      <rects>
        <_>
          15 11 5 8 -1.</_>
        <_>
          15 15 5 4 2.</_></rects>
      <tilted>0</tilted></_>
    <_>
      <rects>
        <_>
          16 4 4 3 -1.</_>
        <_>
          16 4 2 3 2.</_></rects>
      <tilted>1</tilted></_>
    <_>
      <rects>
        <_>
          17 9 2 4 -1.</_>
        <_>
          17 9 1 2 2.</_>
        <_>
          18 11 1 2 2.</_></rects>
      <tilted>0</tilted></_>
    <_>
      <rects>
        <_>
          17 11 3 6 -1.</_>
        <_>
          18 11 1 6 3.</_></rects>
      <tilted>0</tilted></_>
    <_>
      <rects>
        <_>
          18 4 2 2 -1.</_>
        <_>
          18 4 1 2 2.</_></rects>
      <tilted>1</tilted></_>
    <_>
      <rects>
        <_>
          18 9 2 11 -1.</_>
        <_>
          19 9 1 11 2.</_></rects>
      <tilted>0</tilted></_>
    <_>
      <rects>
        <_>
          18 10 2 8 -1.</_>
        <_>
          19 10 1 8 2.</_></rects>
      <tilted>0</tilted></_>
    <_>
      <rects>
        <_>
          18 19 2 1 -1.</_>
        <_>
          19 19 1 1 2.</_></rects>
      <tilted>0</tilted></_></features></cascade>
</opencv_storage>
